king 0.12597656 0.029785156 0.008605957 0.13964844 -0.025634766 -0.036132812 0.111816406 -0.19824219 0.05126953 0.36328125 -0.2421875 -0.30273438 -0.17773438 -0.024902344 -0.16796875 -0.16992188 0.03466797 0.005218506 0.04638672 0.12890625 0.13671875 0.11279297 0.059570312 0.13671875 0.10107422 -0.17675781 -0.25195312 0.059814453 0.34179688 -0.03112793 0.10449219 0.061767578 0.12451172 0.40039062 -0.32226562 0.083984375 0.0390625 0.005859375 0.0703125 0.17285156 0.13867188 -0.23144531 0.28320312 0.14257812 0.34179688 -0.023925781 -0.10986328 0.033203125 -0.0546875 0.015319824 -0.16210938 0.15820312 -0.25976562 0.020141602 -0.16308594 0.0013580322 -0.14453125 -0.056884766 0.04296875 -0.024658203 0.18554688 0.44726562 0.0095825195 0.13183594 0.09863281 -0.18554688 -0.100097656 -0.13378906 -0.125 0.28320312 0.123046875 0.053222656 -0.17773438 0.0859375 -0.021850586 0.020507812 -0.13964844 0.025146484 0.13867188 -0.10546875 0.13867188 0.08886719 -0.07519531 -0.021362305 0.17285156 0.04638672 -0.265625 0.008911133 0.14941406 0.037841797 0.23828125 -0.12451172 -0.21777344 -0.18164062 0.029785156 0.057128906 -0.028930664 0.012451172 0.09667969 -0.23144531 0.05810547 0.06689453 0.07080078 -0.30859375 -0.21484375 0.14550781 -0.42773438 -0.009399414 0.15429688 -0.076660156 0.2890625 0.27734375 -0.0004863739 -0.13671875 0.32421875 -0.24609375 -0.003036499 -0.21191406 0.125 0.26953125 0.20410156 0.08251953 -0.20117188 -0.16015625 -0.037841797 -0.12011719 0.115234375 -0.041015625 -0.03955078 -0.08984375 0.0063476562 0.203125 0.18652344 0.2734375 0.06298828 0.14160156 -0.09814453 0.13867188 0.18261719 0.17382812 0.17382812 -0.23730469 0.17871094 0.06347656 0.23632812 -0.20898438 0.087402344 -0.16601562 -0.07910156 0.24316406 -0.08886719 0.12695312 -0.21679688 -0.17382812 -0.359375 -0.08251953 -0.064941406 0.05078125 0.13574219 -0.07470703 -0.1640625 0.0115356445 0.4453125 -0.21582031 -0.111328125 -0.19238281 0.17089844 -0.125 0.0026550293 0.19238281 -0.17480469 0.13964844 0.29296875 0.11328125 0.059570312 -0.063964844 0.099609375 -0.02722168 0.01965332 0.04272461 -0.24609375 0.063964844 -0.22558594 -0.16894531 0.00289917 0.08203125 0.34179688 0.04321289 0.1328125 0.14257812 0.076171875 0.059814453 -0.119140625 0.002746582 -0.06298828 -0.02722168 -0.0048217773 -0.08203125 -0.024902344 -0.40039062 -0.106933594 0.04248047 0.07763672 -0.11669922 0.07373047 -0.092285156 0.107910156 0.15820312 0.04248047 0.12695312 0.036132812 0.26757812 -0.10107422 -0.30273438 -0.057617188 0.05053711 0.0005264282 -0.20703125 -0.13867188 -0.008972168 -0.027832031 -0.14160156 0.20703125 -0.15820312 0.12792969 0.14941406 -0.022460938 -0.084472656 0.122558594 0.21582031 -0.21386719 -0.3125 -0.37304688 0.0040893555 0.107421875 0.106933594 0.07324219 0.008972168 -0.03881836 -0.12988281 0.14941406 -0.21484375 -0.0018386841 0.099121094 0.15722656 -0.11425781 -0.20507812 0.099121094 0.36914062 -0.19726562 0.03540039 0.109375 0.13183594 0.16699219 0.23535156 0.10498047 -0.49609375 -0.1640625 -0.15625 -0.052246094 0.103027344 0.24316406 -0.18847656 0.05078125 -0.09375 -0.06689453 0.022705078 0.076171875 0.2890625 0.31054688 -0.053710938 0.22851562 0.025146484 0.067871094 -0.12109375 -0.21582031 -0.2734375 -0.030761719 -0.33789062 0.15332031 0.23339844 -0.20800781 0.37304688 0.08203125 0.25195312 -0.076171875 -0.04663086 -0.022338867 0.029907227 -0.059326172 -0.0046691895 -0.24414062 -0.20996094 -0.28710938 -0.045410156 -0.17773438 -0.27929688 -0.0859375 0.091308594 0.25195312
kings 0.060791016 0.103027344 0.00015735626 0.28125 0.06591797 -0.13671875 -0.07910156 -0.38476562 -0.14355469 0.41992188 0.00064849854 -0.1953125 -0.09277344 0.10449219 -0.16503906 0.005218506 0.060302734 -0.030395508 -0.05419922 0.119140625 0.140625 0.1015625 -0.08300781 -0.17382812 0.22753906 -0.022216797 -0.19042969 0.17089844 0.07080078 -0.24121094 0.10107422 0.2578125 0.16796875 0.203125 -0.15136719 0.026367188 0.15332031 -0.011474609 0.033935547 0.15136719 0.37304688 -0.234375 0.20898438 0.064941406 0.4375 -0.22363281 0.15332031 0.007537842 -0.06689453 0.12695312 -0.2734375 0.203125 -0.072265625 -0.27539062 -0.119140625 -0.0073242188 -0.18164062 0.052001953 0.041748047 -0.1953125 0.13867188 0.18945312 0.01550293 -0.048339844 0.04736328 -0.47460938 -0.0034179688 0.23339844 -0.21191406 0.08203125 0.21191406 0.06982422 -0.19042969 0.12792969 -0.045410156 -0.11279297 -0.35546875 -0.05908203 0.125 -0.079589844 -0.057373047 -0.020874023 -0.23925781 -0.0036468506 0.17773438 0.040283203 -0.2578125 -0.21679688 0.029907227 -0.002746582 -0.0046691895 -0.10546875 -0.19726562 -0.31054688 0.08984375 -0.0019226074 -0.09667969 0.01965332 0.13867188 -0.34375 0.0115356445 -0.038085938 0.032470703 -0.17480469 -0.328125 0.03149414 -0.29492188 0.17480469 0.31835938 -0.012329102 0.21386719 0.54296875 0.18261719 -0.028686523 0.14648438 -0.16113281 0.34179688 -0.083984375 -0.057128906 0.07373047 -0.035888672 -0.0029754639 0.005706787 -0.11425781 -0.16699219 -0.07470703 0.021240234 -0.06933594 -0.09375 -0.14355469 -0.03955078 -0.030151367 -0.037109375 0.14746094 -0.08886719 0.27148438 -0.23828125 0.14257812 0.13183594 0.33984375 0.15429688 -0.38867188 0.2109375 0.18945312 0.23925781 -0.11328125 0.023803711 -0.30859375 0.034423828 0.08544922 -0.171875 0.18359375 -0.53515625 -0.022827148 -0.056884766 0.1171875 -0.15625 0.06933594 0.25390625 -0.21679688 -0.122558594 -0.030883789 0.15234375 -0.40625 0.006134033 -0.08105469 0.0064697266 -0.23632812 -0.100097656 0.03564453 -0.41210938 0.1328125 0.31054688 0.048583984 0.07128906 -0.20898438 -0.19140625 0.061523438 0.072753906 -0.018066406 -0.12158203 -0.095214844 -0.125 -0.106933594 0.012573242 -0.01965332 0.390625 -0.12597656 0.2890625 0.31835938 -0.030273438 -0.016845703 -0.140625 -0.0071411133 -0.051513672 -0.122558594 0.0099487305 0.1328125 -0.05908203 -0.19335938 0.119628906 0.11425781 0.08642578 -0.19628906 0.052734375 -0.16894531 0.111328125 0.059814453 -0.11669922 0.22363281 0.04638672 0.32226562 -0.1484375 -0.3515625 -0.045410156 0.056396484 -0.0061950684 -0.17578125 0.048583984 -0.06347656 -0.06738281 -0.08642578 0.19824219 -0.103027344 -0.04638672 0.060058594 -0.007232666 -0.052490234 -0.068847656 0.24902344 -0.111816406 -0.35546875 -0.1328125 0.10986328 0.22949219 -0.0625 0.044921875 0.15429688 0.08984375 -0.24414062 0.2890625 -0.18359375 0.13574219 -0.103027344 0.03540039 0.017944336 -0.1171875 0.23828125 0.28320312 -0.083984375 0.13085938 0.20898438 0.017822266 0.09667969 0.17871094 -0.039794922 -0.29882812 -0.122558594 -0.107910156 -0.115234375 0.08251953 0.12792969 -0.026733398 0.03466797 -0.31445312 0.12402344 0.032714844 -0.03466797 0.28710938 0.16503906 -0.09863281 0.15917969 -0.15332031 0.15820312 0.033691406 -0.0625 -0.16015625 0.012573242 -0.29101562 0.26367188 0.04638672 0.017578125 0.32421875 0.076660156 0.30078125 -0.12451172 -0.052001953 0.11328125 -0.033203125 -0.057373047 0.123535156 -0.2734375 -0.16992188 -0.18945312 -0.10205078 -0.28710938 -0.0703125 -0.37695312 0.22363281 0.21191406
queen 0.0052490234 -0.14355469 -0.06933594 0.123535156 0.13183594 -0.08886719 -0.07128906 -0.21679688 -0.19726562 0.055664062 -0.075683594 -0.38085938 0.104003906 -0.0008163452 0.1328125 0.11279297 0.072753906 -0.046875 0.06591797 0.09423828 0.19042969 0.13671875 -0.23632812 -0.118652344 0.06542969 -0.053222656 -0.30859375 0.091796875 0.18847656 -0.16699219 -0.15625 -0.13085938 -0.08251953 0.21289062 -0.35546875 -0.13183594 0.096191406 0.26367188 -0.09472656 0.18359375 0.106933594 -0.41601562 0.26953125 -0.027709961 0.17578125 -0.11279297 -0.004119873 0.14550781 0.15625 0.26757812 -0.017944336 0.09863281 0.052978516 -0.03125 -0.16308594 -0.05810547 -0.34375 -0.17285156 0.11425781 -0.09033203 0.13476562 0.27929688 -0.049804688 0.12988281 0.17578125 -0.22167969 -0.0119018555 0.140625 -0.18164062 0.118652344 0.16113281 0.21484375 -0.21191406 0.12695312 -0.100097656 0.13671875 0.12695312 0.015319824 0.10449219 -0.027832031 -0.060302734 0.022216797 0.18164062 -0.06738281 0.049072266 0.15429688 -0.25 0.13964844 0.29492188 0.10644531 0.3359375 -0.22265625 -0.125 -0.052978516 0.19238281 0.068359375 0.06982422 -0.052001953 0.14453125 0.004486084 -0.010131836 -0.1484375 0.21777344 -0.1953125 -0.390625 0.07763672 -0.57421875 -0.07910156 -0.040527344 -0.1875 0.25390625 0.15722656 0.125 0.140625 0.20117188 -0.05859375 0.16894531 -0.28125 0.171875 0.19140625 0.12109375 -0.15039062 -0.006958008 -0.23730469 0.13964844 -0.008361816 -0.04711914 0.14648438 -0.056884766 0.10205078 0.084472656 0.21191406 -0.018310547 0.50390625 -0.048583984 0.22167969 -0.25585938 0.034179688 0.15820312 -0.033691406 0.06738281 -0.25195312 0.046142578 -0.072753906 0.079589844 0.042236328 -0.0012893677 0.20214844 -0.13085938 -0.060302734 0.037841797 0.13574219 0.111816406 -0.24609375 -0.23925781 -0.23632812 -0.04321289 -0.029052734 0.23535156 -0.00390625 -0.05029297 0.18457031 0.50390625 -0.0066833496 -0.03466797 -0.075683594 0.061523438 -0.31445312 -0.037597656 0.23632812 -0.12792969 0.15429688 0.296875 0.02709961 -0.17089844 -0.22460938 0.0024108887 0.10595703 -0.033203125 0.014587402 -0.21582031 0.24707031 -0.07421875 -0.10205078 0.16894531 -0.05029297 0.20800781 -0.03857422 -0.22265625 0.27539062 -0.059570312 -0.017578125 0.017944336 0.08886719 0.12890625 0.18261719 0.14453125 0.104003906 -0.1328125 -0.32617188 0.0038604736 -0.11376953 -0.05053711 -0.13085938 0.022094727 -0.14648438 0.107421875 0.23046875 0.15234375 0.22753906 0.048339844 0.067871094 -0.067871094 -0.2578125 0.11230469 0.0036315918 -0.12011719 -0.21289062 0.11230469 0.12158203 0.068359375 0.049072266 0.2734375 -0.0030212402 -0.0037841797 0.0019378662 0.1875 -0.29101562 0.09033203 0.26367188 -0.25585938 -0.28710938 -0.40820312 0.10546875 0.39648438 -0.072753906 -0.04321289 -0.06347656 -0.00060272217 -0.115234375 0.31445312 -0.22265625 0.13574219 -0.01965332 0.15332031 0.0036010742 -0.12011719 0.064941406 0.16210938 -0.16699219 0.032714844 -0.0035095215 0.18847656 0.19335938 0.1328125 0.067871094 -0.34179688 -0.083496094 -0.29492188 -0.020996094 0.08886719 0.32421875 -0.36914062 -0.0859375 -0.049560547 0.13183594 0.044189453 0.359375 0.21484375 0.265625 -0.2734375 0.23535156 0.11425781 0.087890625 0.1875 -0.33203125 0.15136719 -0.036132812 -0.119140625 0.27734375 0.10839844 -0.072753906 0.23242188 0.0021972656 0.23828125 -0.24902344 -0.123535156 -0.15917969 -0.006011963 0.14550781 -0.0046081543 -0.22558594 -0.37890625 -0.37695312 -0.08251953 -0.041259766 0.16796875 -0.046875 0.16308594 0.15429688
monarch 0.13867188 -0.06689453 -0.13867188 0.13769531 -0.06542969 -0.024291992 0.0012283325 -0.123046875 0.19921875 0.23828125 -0.076171875 -0.44921875 -0.08251953 0.12792969 0.13476562 -0.19628906 -0.119140625 0.20996094 0.038085938 0.13574219 0.2578125 -0.01586914 -0.2265625 0.080078125 0.16699219 -0.13671875 -0.18554688 0.068847656 0.33984375 -0.115722656 -0.021606445 0.016845703 -0.13964844 0.3203125 -0.14355469 0.049804688 0.26171875 -0.033935547 -0.25195312 0.20996094 0.032958984 -0.33984375 0.29101562 0.33007812 0.3984375 -0.15820312 -0.07470703 0.22558594 -0.19042969 0.052734375 -0.057128906 -0.19921875 -0.052978516 0.103515625 -0.2578125 0.050048828 -0.47070312 -0.10839844 -0.17285156 -0.119140625 0.23828125 0.34765625 0.13476562 -0.11816406 0.14453125 -0.03515625 -0.12158203 0.024780273 0.037597656 0.14257812 -0.024169922 0.20214844 -0.34179688 0.0146484375 0.25976562 -0.0390625 -0.048583984 0.087890625 0.24023438 0.11425781 0.063964844 0.18066406 0.20898438 -0.11621094 0.003479004 0.296875 -0.20898438 -0.12988281 0.24414062 0.07910156 0.37304688 -0.18359375 -0.31054688 -0.032958984 0.17285156 -0.02319336 0.123046875 -0.125 0.21777344 0.016723633 0.09375 0.043701172 0.18261719 -0.1953125 -0.19042969 -0.18164062 -0.47460938 0.0034332275 0.26953125 -0.111328125 0.059570312 0.17480469 0.028198242 0.19628906 0.19824219 -0.34765625 0.15234375 -0.36914062 0.29296875 0.19726562 0.11621094 0.076660156 -0.068359375 -0.19824219 -0.107910156 -0.051513672 0.08300781 -0.014770508 -0.18847656 0.14550781 0.14160156 0.14550781 -0.061767578 0.29882812 0.24804688 0.08251953 -0.3828125 0.17382812 -0.037353516 -0.021606445 0.19726562 0.01928711 -0.19433594 0.19726562 0.27734375 0.014892578 0.049560547 -0.16210938 -0.15234375 0.25195312 0.19238281 -0.07861328 0.009033203 -0.1015625 0.024780273 -0.1484375 -0.08984375 0.08300781 0.19726562 0.035888672 -0.28710938 0.22167969 0.32226562 -0.030639648 0.030151367 0.017456055 0.046875 -0.100097656 0.103515625 0.3046875 -0.08544922 0.16015625 0.059570312 0.23828125 -0.20800781 -0.22558594 -0.08642578 -0.02722168 0.1328125 -0.23828125 -0.44335938 0.032714844 -0.16308594 -0.31835938 -0.014526367 0.51171875 0.20410156 0.044921875 0.061279297 0.2578125 -0.5 0.02331543 -0.100097656 -0.02734375 0.034179688 0.067871094 0.15429688 0.46679688 0.020385742 -0.609375 -0.056396484 -0.08984375 -0.18554688 0.14355469 0.34765625 -0.10595703 0.24121094 0.07861328 0.20410156 -0.2734375 -0.12207031 0.16992188 0.2578125 -0.3828125 -0.0063476562 0.10107422 -0.23242188 -0.075683594 0.110839844 0.11035156 -0.017089844 -0.12695312 0.390625 -0.36523438 0.11669922 -0.024047852 -0.007080078 -0.09033203 0.28515625 0.1796875 -0.18359375 -0.2890625 -0.4296875 0.052001953 0.21777344 0.22753906 0.10253906 0.025268555 0.06298828 -0.13574219 0.24609375 -0.22265625 0.31640625 0.00982666 0.27929688 -0.3203125 -0.36328125 -0.045898438 0.26953125 -0.0703125 0.0154418945 -0.19726562 0.049560547 0.38671875 0.07128906 -0.041503906 -0.421875 -0.05883789 -0.41015625 0.072753906 0.08984375 0.49023438 -0.15234375 -0.022583008 -0.057373047 0.14550781 -0.13378906 -0.08251953 0.22460938 0.3046875 0.040283203 0.22558594 0.057373047 0.32617188 0.2109375 -0.31445312 0.11328125 -0.030883789 -0.20996094 0.1796875 0.013977051 -0.13769531 0.43164062 0.0703125 0.47460938 -0.15429688 -0.07910156 -0.125 -0.043945312 0.014526367 -0.09277344 -0.123535156 -0.119628906 -0.28710938 -0.11279297 0.22167969 -0.12402344 0.1640625 0.34765625 0.26953125
crown_prince -0.06347656 0.09277344 0.13476562 -0.0030822754 -0.27734375 -0.34960938 0.025268555 -0.123046875 0.18652344 0.53515625 -0.11621094 -0.28710938 -0.15136719 -0.171875 -0.19921875 -0.296875 -0.088378906 0.2734375 0.099121094 0.06738281 0.23046875 0.05908203 0.19921875 0.5 -0.061279297 -0.25 -0.18945312 0.15820312 0.35351562 0.018676758 -0.21679688 -0.115722656 0.0068359375 0.48828125 -0.25195312 0.26953125 0.359375 -0.0625 -0.18652344 0.18652344 -0.018066406 -0.22167969 0.1640625 0.08544922 0.28710938 -0.10839844 -0.15234375 -0.18261719 -0.084472656 0.042236328 0.060302734 0.020629883 -0.24707031 -0.079589844 -0.3828125 0.16894531 -0.23730469 -0.087402344 0.27539062 -0.28515625 0.08544922 0.5078125 0.24804688 0.07519531 0.32421875 -0.023803711 0.028442383 -0.13671875 0.11621094 0.23632812 -0.16699219 0.07128906 -0.106933594 0.06225586 -0.01965332 0.12011719 -0.13867188 0.42382812 0.34375 -0.17382812 0.30859375 0.08935547 -0.1171875 0.19335938 0.10058594 0.28320312 -0.16503906 -0.1328125 0.20703125 0.06982422 0.21875 -0.18457031 -0.33007812 -0.05029297 0.057128906 -0.06982422 -0.08984375 -0.119628906 0.2890625 0.083984375 0.07324219 0.09423828 -0.18359375 -0.033447266 0.0065307617 -0.09375 -0.42773438 -0.12792969 0.3046875 -0.032958984 0.35351562 0.32617188 0.22460938 -0.359375 0.18066406 -0.35742188 -0.10644531 -0.25585938 0.50390625 0.119140625 0.045898438 -0.08251953 -0.18554688 0.20800781 -0.032226562 -0.045898438 0.05908203 -0.25 0.11425781 0.06982422 0.15136719 0.16503906 0.087402344 0.12890625 0.20800781 -0.005706787 -0.18945312 0.024780273 0.041259766 0.16210938 0.19140625 -0.19824219 0.07714844 -0.028198242 0.24121094 0.06298828 -0.18261719 -0.059814453 -0.09472656 -0.045410156 0.27539062 0.08984375 0.16113281 -0.4921875 -0.1953125 -0.13964844 0.036621094 -0.16601562 0.27148438 0.12695312 -0.19628906 0.014709473 0.3671875 0.265625 -0.004333496 0.0115356445 0.1015625 0.12207031 0.052978516 0.19726562 0.005065918 -0.0073242188 0.11376953 -0.038085938 -0.119140625 0.053466797 -0.11621094 -0.010498047 -0.0072021484 -0.17871094 -0.27148438 -0.032470703 -0.20019531 -0.28515625 0.0234375 0.4765625 0.28710938 -0.07128906 0.060791016 0.22070312 -0.19824219 0.34960938 -0.20898438 -0.068847656 0.16894531 0.24902344 -0.0018920898 0.15625 -0.026367188 -0.8046875 -0.2109375 -0.10107422 -0.1953125 0.04321289 0.13867188 -0.39257812 0.043945312 -0.19726562 -0.107421875 -0.23242188 0.32226562 0.030029297 0.2890625 -0.38671875 0.12451172 0.11816406 -0.22363281 0.049072266 -0.059814453 0.016601562 -0.13476562 -0.29101562 0.32226562 -0.20507812 0.4609375 -0.08251953 0.11816406 -0.045166016 0.25390625 0.20507812 -0.15917969 -0.30078125 -0.29296875 -0.072265625 0.34179688 -0.13964844 -0.040771484 0.12695312 -0.03564453 -0.28125 -0.14355469 -0.28710938 -0.15039062 0.017333984 0.060791016 -0.052978516 -0.0119018555 -0.049560547 0.140625 -0.2578125 0.029785156 0.046875 0.1171875 0.23339844 0.16015625 0.30078125 -0.40625 -0.20703125 -0.35351562 0.18457031 0.08691406 0.56640625 -0.07861328 -0.0022277832 0.030883789 -0.0056152344 -0.064453125 -0.44726562 0.04296875 0.67578125 -0.00043296814 0.22363281 0.111816406 -0.068359375 0.024780273 0.0032043457 0.07714844 0.01953125 -0.16113281 0.2734375 0.47070312 -0.59375 0.21191406 -0.0024871826 0.546875 -0.083496094 0.18554688 -0.17480469 0.25195312 0.024536133 0.029418945 -0.0078125 -0.19726562 -0.20019531 -0.07714844 0.19335938 -0.23632812 0.063964844 0.18945312 0.25195312
Ritz_Crackers -0.013366699 -0.06933594 -0.007293701 0.13085938 0.13867188 0.057617188 0.07714844 -0.046875 -0.079589844 0.080566406 0.03955078 0.030029297 -0.13574219 0.05029297 -0.06225586 0.104003906 0.011779785 0.14257812 -0.18066406 -0.091796875 -0.07080078 0.06201172 0.072753906 -0.022460938 0.052001953 0.041015625 -0.14355469 0.13183594 0.009094238 0.18066406 -0.14355469 -0.11328125 -0.061767578 -0.07763672 -0.030029297 0.1015625 0.33398438 0.09375 -0.17089844 0.16503906 0.099609375 -0.20410156 0.12792969 -0.11279297 -0.08691406 -0.02758789 -0.15234375 0.084472656 0.17480469 0.049804688 -0.3828125 0.14355469 0.28515625 -0.07519531 -0.071777344 -0.014404297 0.11669922 -0.17578125 0.025878906 0.05102539 -0.16113281 0.123535156 -0.16113281 0.10107422 0.107910156 -0.2578125 -0.111816406 -0.171875 0.2421875 0.0038757324 0.16210938 -0.109375 -0.05053711 0.15234375 -0.21386719 -0.23046875 -0.12597656 -0.1953125 -0.084472656 -0.26171875 -0.21679688 -0.140625 -0.04711914 -0.055419922 -0.052490234 -0.08691406 -0.12402344 0.13867188 0.15234375 -0.028320312 -0.115722656 -0.16894531 0.06982422 0.056396484 -0.022338867 -0.03173828 -0.12695312 0.107910156 -0.010620117 0.08642578 -0.17871094 -0.044189453 0.013183594 0.2734375 -0.14160156 -0.018188477 0.11816406 0.1953125 -0.1328125 0.04345703 0.048339844 0.000333786 0.03564453 -0.26171875 0.1953125 0.051757812 -0.123046875 -0.07128906 -0.018798828 -0.08300781 -0.049316406 -0.04663086 0.03881836 -0.052246094 -0.05834961 -0.12597656 0.055419922 0.099609375 0.13867188 -0.052246094 -0.023925781 0.23046875 -0.12207031 0.1015625 -0.03857422 0.15136719 -0.061279297 -0.007171631 0.1484375 0.14746094 0.11376953 -0.19238281 -0.09326172 -0.45507812 0.24707031 0.14746094 0.11669922 -0.067871094 -0.12158203 -0.057373047 0.0019836426 -0.08691406 -0.07714844 -0.18847656 0.0055236816 0.052001953 -0.23242188 0.11328125 -0.1171875 0.020385742 -0.08300781 -0.123046875 0.1640625 0.18359375 0.18457031 -0.064941406 0.028930664 0.040527344 -0.122558594 0.21679688 -0.0033721924 -0.035888672 0.0859375 0.15136719 -0.33007812 0.012329102 -0.114746094 0.0146484375 -0.025512695 0.11328125 0.03540039 -0.103027344 -0.14746094 0.12011719 0.056640625 -0.09863281 0.009338379 -0.019897461 -0.055664062 0.08544922 -0.17578125 -0.020385742 0.095214844 -0.22070312 0.022949219 0.24707031 0.099121094 -0.036621094 -0.08154297 -0.021606445 0.05029297 -0.03173828 0.016723633 0.0703125 0.09326172 0.15332031 -0.20800781 0.017700195 0.06933594 0.03564453 -0.13867188 0.055908203 0.049072266 0.2734375 0.17285156 0.016723633 0.16601562 -0.061279297 0.06347656 0.0073242188 -0.203125 0.19140625 -0.049560547 0.07910156 -0.106933594 0.079589844 -0.09033203 -0.02331543 0.076171875 -0.015625 0.115722656 -0.0703125 -0.119628906 0.013549805 -0.16601562 0.0006790161 0.05810547 0.07421875 0.0390625 -0.07128906 0.25585938 0.14550781 0.06542969 -0.28125 0.13574219 0.27539062 -0.10644531 0.20214844 -0.15722656 0.07861328 -0.09033203 -0.005126953 0.19238281 -0.1875 0.020629883 -0.07373047 -0.140625 -0.111328125 0.13183594 -0.21191406 0.15917969 0.23339844 -0.21875 -0.064453125 -0.11425781 -0.15234375 -0.09082031 -0.030639648 0.16894531 0.010375977 0.030151367 -0.016967773 -0.09423828 0.06689453 -0.08300781 0.16210938 0.01361084 -0.13964844 0.024780273 -0.11328125 -0.012207031 0.07714844 -0.18164062 0.049560547 -0.115234375 -0.10595703 0.091308594 0.16796875 -0.16992188 -0.008117676 0.087890625 -0.15820312 -0.35546875 -0.07080078 0.029663086 -0.20605469 0.30273438 -0.041992188 0.052001953 -0.015563965
Europhobic 0.16796875 -0.03466797 0.12597656 0.25585938 -0.37304688 -0.09863281 0.008361816 0.04248047 0.012145996 0.11376953 -0.28125 -0.076660156 -0.06591797 0.15136719 -0.06347656 -0.0032196045 0.1171875 0.15917969 0.033691406 -0.119140625 0.25 0.2265625 0.26367188 0.122558594 0.0047302246 0.0134887695 -0.119140625 0.18261719 0.18554688 0.055419922 0.036621094 -0.11767578 -0.13085938 0.16796875 0.037353516 0.12060547 0.095214844 0.19042969 0.024658203 0.08984375 0.24902344 -0.18945312 0.04736328 -0.026977539 -0.13476562 -0.13574219 -0.22851562 0.09033203 -0.04736328 -0.010375977 -0.046142578 0.052001953 0.02319336 0.045410156 -0.068847656 0.11669922 -0.13671875 -0.32421875 -0.040771484 0.005645752 0.06542969 0.1640625 -0.17871094 -0.171875 -0.010314941 -0.11279297 -0.106933594 -0.057617188 0.030273438 0.17285156 -0.057373047 0.18652344 0.171875 0.044433594 0.009765625 -0.23828125 0.14160156 0.17675781 0.10058594 0.17480469 -0.080566406 0.021850586 0.076171875 -0.047607422 -0.09375 -0.075683594 0.09375 0.095703125 -0.07080078 0.0126953125 -0.006164551 -0.057373047 -0.15136719 0.053466797 -0.140625 0.07470703 0.009216309 -0.06347656 0.011047363 0.048339844 0.025634766 0.1328125 0.046875 -0.053466797 -0.017822266 0.0050964355 -0.06640625 0.083984375 0.11816406 -0.19238281 -0.08544922 -0.17285156 -0.0859375 0.18261719 0.16894531 -0.12988281 -0.06347656 0.037109375 0.19042969 0.067871094 0.027709961 -0.068359375 -0.17089844 -0.04736328 -0.23242188 -0.04638672 -0.1171875 0.041748047 -0.10498047 -0.20117188 -0.008666992 0.047851562 0.068359375 0.14941406 -0.03930664 -0.0065307617 0.056640625 0.125 0.12451172 -0.01171875 0.09375 -0.08886719 -0.024291992 -0.019042969 0.12792969 -0.05078125 -0.075683594 -0.037353516 0.023803711 0.068359375 0.24511719 -0.10546875 -0.045898438 -0.052001953 0.05810547 -0.071777344 -0.16699219 -0.15234375 -0.052001953 -0.092285156 -0.13476562 0.10107422 -0.07861328 -0.2265625 0.19726562 -0.1640625 0.016113281 0.031982422 -0.03100586 0.12158203 -0.036865234 -0.1328125 0.008728027 -0.01159668 -0.064941406 -0.072753906 -0.11767578 -0.18554688 -0.09423828 -0.061523438 -0.109375 -0.04711914 -0.033691406 -0.0031280518 0.034179688 0.08544922 0.045898438 -0.022460938 -0.1484375 0.06738281 0.07080078 0.07519531 -0.02355957 0.014099121 0.052001953 0.13964844 -0.123046875 0.20703125 0.0018157959 0.16113281 -0.018310547 0.0035858154 0.020141602 -0.11376953 0.10546875 0.0546875 0.1328125 0.067871094 -0.018676758 -0.140625 0.020996094 -0.30273438 0.2890625 0.23339844 -0.063964844 -0.12988281 0.017211914 -0.06542969 0.064941406 0.060058594 -0.104003906 -0.041259766 0.08642578 0.052246094 -0.067871094 0.016357422 0.15136719 0.10546875 0.1328125 -0.060546875 -0.02319336 0.004180908 0.11669922 -0.009033203 0.17382812 0.12060547 0.19140625 -0.059570312 0.16796875 -0.14550781 0.091796875 0.01953125 0.12988281 0.004547119 0.119628906 0.083984375 -0.08642578 0.13671875 0.005126953 0.19824219 -0.114746094 -0.0390625 -0.0026550293 0.36132812 0.009521484 -0.0047912598 0.057128906 0.110839844 0.10644531 -0.10595703 0.0043640137 0.1796875 -0.010192871 0.23339844 -0.07861328 0.09033203 -0.1796875 -0.103027344 -0.15722656 0.06591797 -0.033691406 0.050048828 0.045410156 0.09863281 -0.040283203 0.09814453 0.060302734 0.010314941 -0.07373047 0.13476562 -0.010803223 0.078125 -0.096191406 -0.14648438 -0.064453125 -0.022460938 -0.24121094 0.047607422 -0.080566406 0.032958984 -0.08203125 0.06640625 -0.13183594 -0.0013046265 -0.19824219 -0.034423828 0.15332031 0.055664062 0.114746094 0.012023926
Mackway_Jones -0.016357422 0.064941406 0.018798828 -0.036865234 0.032958984 -0.026977539 0.06298828 -0.1328125 0.07128906 -0.11425781 0.013427734 -0.083496094 -0.020996094 0.001739502 -0.13964844 0.029418945 0.012207031 -0.021728516 0.0018081665 0.08935547 0.036132812 -0.036865234 0.076171875 0.0043945312 0.071777344 0.0076293945 -0.103515625 0.020141602 0.06738281 0.004058838 -0.067871094 -0.007537842 0.08105469 -0.016967773 -0.0023956299 -0.104003906 0.01953125 0.060302734 -0.017822266 -0.05859375 0.040283203 0.005859375 -0.018920898 0.06689453 -0.041259766 -0.068847656 -0.048095703 -0.05126953 -0.00982666 -0.107910156 0.0015335083 -0.049072266 -0.0025177002 -0.05493164 0.022460938 -0.106933594 -0.076660156 -0.063964844 -0.012573242 0.04248047 -0.08642578 0.07714844 -0.059570312 -0.104003906 -0.014770508 0.016113281 -0.0703125 -0.01940918 0.006378174 -0.017456055 -0.103515625 -0.110839844 0.15429688 0.00793457 -0.09472656 -0.044189453 -0.091308594 0.030761719 0.09033203 0.072265625 -0.05493164 0.044433594 -0.016113281 -0.013122559 -0.03857422 -0.009521484 0.049804688 -0.043701172 -0.084472656 -0.009338379 0.06225586 -0.024780273 -0.033691406 0.0146484375 -0.067871094 0.040527344 0.075683594 -0.029663086 0.0134887695 -0.02319336 -0.053222656 0.008483887 0.017089844 0.048095703 0.09667969 -0.053466797 0.06201172 0.04321289 -0.0049743652 -0.071777344 0.009277344 -0.00793457 0.034179688 0.01940918 0.032714844 -0.02319336 0.036621094 -0.14160156 0.09082031 0.03491211 -0.17675781 0.0859375 -0.00491333 0.053710938 -0.122558594 0.06347656 -0.12060547 -0.02319336 0.041015625 0.0234375 -0.050048828 0.060791016 -0.104003906 -0.0119018555 -0.05493164 -0.036621094 0.05883789 0.07763672 0.057617188 0.12158203 0.040283203 -0.0625 -0.016479492 -0.008666992 -0.016967773 0.033935547 -0.052490234 -0.01965332 -0.08154297 0.01940918 -0.03515625 0.0035705566 -0.034179688 -0.007080078 0.009033203 -0.055908203 0.045166016 -0.051757812 -0.06298828 -0.16601562 -0.037109375 0.061523438 0.07373047 0.03466797 0.044677734 -0.033935547 0.013122559 0.032958984 0.008178711 -0.103515625 0.012878418 -0.02734375 -0.03540039 -0.03564453 0.04248047 -0.040283203 0.080566406 -0.042236328 -0.08300781 0.06982422 0.05834961 -0.064941406 0.08154297 -0.02319336 0.022705078 -0.041259766 0.08544922 -0.033691406 -0.006011963 -0.0154418945 -0.061767578 -0.045166016 -0.08642578 -0.050048828 -0.024169922 -0.039794922 0.099121094 -0.05517578 -0.03149414 -2.9444695e-05 0.03125 0.060302734 -0.10253906 0.022094727 0.030151367 0.025390625 0.067871094 -0.0020141602 0.010620117 -0.06982422 0.037109375 -0.0390625 -0.03125 -0.017700195 -0.034179688 -0.14941406 0.0078125 -0.006378174 0.020019531 0.068847656 0.020385742 -0.034179688 0.07080078 -0.008300781 0.052978516 -0.025268555 0.025024414 -0.110839844 0.018798828 -0.031982422 -0.038330078 0.045410156 0.08886719 -0.055908203 -0.047607422 -0.04296875 0.0053100586 0.09765625 0.013793945 0.071777344 0.0087890625 -0.0034179688 0.061767578 -0.044433594 0.064453125 -0.007019043 -0.036132812 0.029174805 -0.014221191 -0.060546875 -0.030517578 0.0036010742 0.040527344 0.0859375 0.052978516 0.011962891 -0.045654297 0.05126953 -0.059326172 -0.0076904297 -0.08544922 3.2186508e-05 0.032226562 0.010375977 -0.007293701 -0.13183594 -0.03564453 0.015625 0.049804688 -0.05126953 -0.013671875 -0.040283203 0.057128906 0.063964844 0.072753906 -0.057373047 0.04296875 -0.009277344 0.00017929077 0.04272461 -0.03540039 0.0015487671 -0.012817383 -0.06982422 -0.008361816 0.110839844 0.002090454 0.0063171387 0.04296875 -0.022827148 -0.060302734 -0.01953125 0.025878906 0.10058594 -0.118652344 -0.048339844 -0.004272461 -0.009216309 0.021606445 0.020385742
Blue_Riband -0.29101562 0.025024414 0.03466797 0.07861328 0.20703125 -0.2578125 -0.08203125 0.24023438 0.12890625 0.3046875 -0.13085938 0.025878906 0.049316406 -0.034179688 0.2578125 0.45117188 0.25195312 -0.118652344 0.16894531 -0.28125 0.10644531 -0.04321289 -0.18457031 0.032226562 0.14941406 0.053710938 -0.26953125 0.33398438 0.038330078 0.19042969 0.003829956 -0.29296875 0.234375 0.12597656 -0.07128906 0.28125 -0.27734375 -0.017578125 -0.0028076172 -0.001159668 0.13769531 -0.009033203 0.28125 0.34960938 0.16699219 -0.100097656 0.234375 0.14453125 0.18066406 -0.16796875 -0.15625 0.43359375 -0.015991211 -0.013916016 0.08496094 0.106933594 -0.014465332 -0.12109375 -0.040283203 -0.08496094 0.021606445 -0.09667969 0.18652344 -0.17773438 -0.25585938 -0.13378906 0.23339844 0.091796875 -0.00093460083 0.17773438 -0.083496094 0.0011825562 0.47851562 0.083984375 -0.05834961 -0.32421875 -0.09033203 -0.36523438 0.06591797 -0.2109375 -0.33203125 -0.55859375 -0.09375 -0.22460938 0.12792969 0.12451172 0.05444336 -0.07470703 0.24804688 0.07763672 -0.20214844 0.05859375 0.23925781 -0.30859375 0.020141602 0.107421875 0.029052734 -0.140625 0.26367188 0.09765625 -0.2109375 0.096191406 0.28515625 -0.052978516 -0.025146484 0.19921875 -0.050048828 0.046142578 0.21875 -0.092285156 -0.040771484 0.18066406 0.31640625 0.083496094 0.068847656 -0.03540039 -0.28320312 0.2734375 0.17578125 0.25 -0.32421875 0.25195312 0.12109375 -0.38476562 0.042236328 0.09277344 -0.07470703 -0.06738281 -0.21289062 0.1328125 -0.13867188 0.23144531 -0.16699219 -0.140625 0.17578125 -0.24609375 0.14550781 0.122558594 0.05078125 0.64453125 -0.08642578 -0.00027656555 0.107421875 0.037353516 0.027954102 -0.21289062 -0.15722656 -0.0859375 -0.08935547 -0.17285156 -0.035888672 0.12011719 0.20898438 0.110839844 -0.03149414 -0.21679688 -0.041259766 0.24902344 0.03881836 -0.140625 -0.26757812 -0.008972168 0.0546875 -0.08300781 0.125 -0.29296875 0.15625 -0.33789062 -0.04345703 0.17578125 -0.008178711 -0.099121094 0.20703125 -0.099121094 -0.375 -0.2890625 -0.15234375 -0.125 -0.037109375 -0.1171875 0.061035156 0.022583008 -0.07080078 -0.26367188 -0.0075683594 0.009338379 0.34375 -0.18164062 -0.009155273 0.018188477 -0.390625 0.011352539 0.15625 -0.05102539 0.04638672 0.19726562 0.25 0.43359375 -0.13378906 0.06640625 0.15820312 -0.18066406 -0.34375 -0.041259766 -0.026245117 -0.28125 -0.26171875 -0.0011520386 -0.057861328 0.078125 -0.15332031 -0.20507812 0.23535156 -0.0020141602 0.07763672 -0.17578125 -0.041992188 -0.37890625 0.49414062 -0.119140625 0.013549805 0.51171875 0.15917969 0.22167969 -0.103027344 0.125 0.11328125 -0.31445312 0.2890625 -0.26757812 -0.15039062 -0.21386719 -0.00982666 0.008178711 -0.06640625 -0.09033203 0.028564453 -0.30664062 0.23925781 -0.25195312 0.059570312 -0.26757812 0.23339844 -0.092285156 0.24511719 0.022583008 -0.11425781 0.23046875 0.26367188 -0.033935547 -0.02331543 -0.034423828 -0.071777344 0.0036621094 0.13183594 0.3125 -0.18261719 0.27539062 -0.33789062 0.020751953 0.078125 0.19042969 -0.24609375 0.040771484 -0.032958984 -0.123535156 -0.26171875 -0.31835938 -0.20019531 -0.10986328 -0.12011719 0.13378906 -0.15722656 0.3359375 -0.037353516 0.061279297 -0.041992188 -0.40234375 -0.111328125 0.23632812 -0.29296875 0.041259766 0.0625 -0.24121094 0.09423828 0.11425781 -0.10546875 0.31054688 -0.23730469 0.22460938 -0.03540039 -0.31835938 -0.29101562 -0.049072266 0.140625 -0.0625 0.12988281 -0.0039367676 0.015258789 -0.114746094
Xavier_Musketeers 0.052001953 0.13378906 0.15039062 0.55859375 0.23730469 0.21289062 -0.067871094 0.021850586 0.091308594 0.45898438 -0.07910156 0.22167969 0.017456055 0.34765625 0.06689453 0.014709473 0.028808594 -0.037353516 0.33984375 0.19628906 0.36523438 -0.092285156 0.58984375 -0.18945312 -0.23925781 -0.072265625 -0.03881836 -0.016235352 -0.21191406 0.049560547 0.07763672 -0.06201172 -0.07128906 -0.17382812 -0.076171875 0.14257812 -0.059570312 -0.045410156 -0.27929688 0.27734375 0.0051879883 -0.21679688 0.30273438 0.079589844 -0.09082031 -0.29296875 0.23632812 -0.09765625 0.05517578 0.265625 -0.16992188 0.3984375 -0.18164062 -0.0035552979 0.048095703 -0.05053711 0.047607422 -0.014892578 0.17382812 -0.07421875 -0.33203125 0.056152344 0.0015869141 0.10839844 -0.30078125 0.34570312 -0.13378906 0.107910156 0.39257812 0.26171875 0.25195312 0.12988281 -0.20605469 -0.22753906 -0.063964844 -0.20996094 -0.20117188 -0.31445312 -0.1484375 0.19628906 -0.23632812 0.09814453 -0.39648438 -0.22167969 0.24511719 -0.029052734 -0.18164062 -0.0099487305 0.41796875 0.17773438 -0.48632812 -0.28125 -0.25195312 0.07080078 0.14746094 -0.19140625 0.095214844 -0.30859375 -0.1875 -0.014831543 0.059326172 -0.10839844 0.17480469 -0.06982422 -0.09472656 -0.110839844 -0.17578125 -0.16601562 0.18261719 -0.019165039 0.1953125 -0.28320312 0.028320312 -0.057128906 0.18359375 0.15234375 0.056640625 0.12890625 -0.09375 0.061279297 -0.3046875 -0.15039062 -0.23046875 -0.47851562 0.13769531 0.13378906 -0.203125 -0.18652344 0.0024871826 -0.13964844 0.033691406 0.09277344 -0.11816406 0.22949219 0.036865234 -0.16113281 0.06542969 0.08544922 -0.24316406 -0.03564453 0.11816406 0.30859375 0.07714844 -0.21777344 -0.203125 0.26953125 0.20117188 0.265625 0.16210938 -0.23828125 0.095214844 0.06201172 -0.20996094 -0.009643555 -0.15039062 0.01184082 0.13867188 -0.20507812 -0.19238281 -0.12890625 -0.359375 0.122558594 0.22363281 -0.19433594 0.17773438 -0.53125 -0.22265625 -0.052490234 -0.19042969 0.12988281 0.18457031 -0.07910156 0.14160156 0.11767578 0.045166016 0.27148438 0.035888672 0.1953125 0.025268555 -0.09765625 0.15917969 0.04345703 0.22167969 -0.5078125 -0.40234375 -0.12695312 -0.071777344 0.08886719 0.10253906 -0.111328125 0.24707031 -0.23242188 -0.18554688 -0.15722656 -0.123046875 -0.03125 -0.26757812 -0.01940918 -0.123046875 -0.484375 0.008666992 -0.21289062 -0.03881836 0.12792969 0.03466797 0.25976562 0.37109375 0.064941406 -0.265625 -0.15234375 -0.31054688 0.006378174 0.078125 -0.13476562 -0.44726562 0.10253906 -0.14257812 0.014953613 0.13671875 -0.04638672 -0.35351562 0.17773438 -0.063964844 -0.020507812 -0.053710938 0.26953125 -0.037597656 0.1484375 -0.12792969 -0.37109375 -0.22070312 0.071777344 -0.23535156 -0.10888672 -0.11328125 -0.06640625 0.21679688 -0.36914062 -0.064453125 -0.036132812 0.27148438 -0.09423828 -0.019042969 -0.39648438 0.024902344 0.37695312 -0.25976562 -0.28320312 -0.2265625 -0.38671875 0.07714844 -0.16699219 -0.17382812 -0.34570312 0.25976562 -0.23144531 0.34765625 -0.024169922 0.22851562 -0.11816406 0.22558594 0.053710938 0.050048828 -0.04711914 0.09033203 0.33984375 0.05419922 0.11816406 -0.140625 -0.15039062 0.12597656 0.25976562 0.107421875 0.265625 0.29296875 0.053710938 0.359375 -0.05102539 0.026855469 0.18945312 -0.30078125 -0.071777344 -0.026367188 -0.16210938 0.3671875 -0.18652344 -0.048583984 0.20019531 0.15136719 0.08300781 0.012207031 -0.02368164 -0.013244629 -0.27539062 0.11425781 -0.05102539 0.036621094 0.076660156 0.16894531 0.15234375
